<?xml version="1.0"?>
<opencv_storage>
<stage1>
  <maxWeakCount>8</maxWeakCount>
  <stageThreshold>-2.7881500124931335e-01</stageThreshold>
  <weakClassifiers>
    <_>
      <internalNodes>
        0 -1 68325 4.2977044358849525e-03</internalNodes>
      <leafValues>
        -5.9197324514389038e-01 8.8059699535369873e-01</leafValues></_>
    <_>
      <internalNodes>
        0 -1 110819 9.4774272292852402e-03</internalNodes>
      <leafValues>
        -9.4619798660278320e-01 5.0912952423095703e-01</leafValues></_>
    <_>
      <internalNodes>
        0 -1 71481 4.1118892841041088e-03</internalNodes>
      <leafValues>
        -5.6491428613662720e-01 8.4460288286209106e-01</leafValues></_>
    <_>
      <internalNodes>
        0 -1 9948 2.9493372494471259e-05</internalNodes>
      <leafValues>
        4.4643342494964600e-01 -9.8066973686218262e-01</leafValues></_>
    <_>
      <internalNodes>
        0 -1 97 -4.1693660023156554e-05</internalNodes>
      <leafValues>
        -1. 3.7908157706260681e-01</leafValues></_>
    <_>
      <internalNodes>
        0 -1 60166 -6.1512808315455914e-03</internalNodes>
      <leafValues>
        9.7400557994842529e-01 -5.1728284358978271e-01</leafValues></_>
    <_>
      <internalNodes>
        0 -1 104084 -2.6123151183128357e-02</internalNodes>
      <leafValues>
        9.9304169416427612e-01 -5.5016267299652100e-01</leafValues></_>
    <_>
      <internalNodes>
        0 -1 121920 5.1003061234951019e-02</internalNodes>
      <leafValues>
        6.1087352037429810e-01 -9.9784213304519653e-01</leafValues></_></weakClassifiers></stage1>
</opencv_storage>
