<?xml version="1.0"?>
<opencv_storage>
<stage2>
  <maxWeakCount>8</maxWeakCount>
  <stageThreshold>-5.0487574189901352e-02</stageThreshold>
  <weakClassifiers>
    <_>
      <internalNodes>
        0 -1 106973 -1.9573003053665161e-02</internalNodes>
      <leafValues>
        -9.0296494960784912e-01 5.3259140253067017e-01</leafValues></_>
    <_>
      <internalNodes>
        0 -1 53715 -6.1617605388164520e-03</internalNodes>
      <leafValues>
        9.4289612770080566e-01 -5.5081528425216675e-01</leafValues></_>
    <_>
      <internalNodes>
        0 -1 0 2.0232724637025967e-05</internalNodes>
      <leafValues>
        5.1409870386123657e-01 -1.</leafValues></_>
    <_>
      <internalNodes>
        0 -1 22540 3.4608677029609680e-02</internalNodes>
      <leafValues>
        4.3208605051040649e-01 -9.9774867296218872e-01</leafValues></_>
    <_>
      <internalNodes>
        0 -1 86004 -2.5352925062179565e-02</internalNodes>
      <leafValues>
        9.8312532901763916e-01 -5.7136917114257812e-01</leafValues></_>
    <_>
      <internalNodes>
        0 -1 109246 1.5999149531126022e-02</internalNodes>
      <leafValues>
        -5.8714759349822998e-01 9.9362021684646606e-01</leafValues></_>
    <_>
      <internalNodes>
        0 -1 121525 -7.4426061473786831e-05</internalNodes>
      <leafValues>
        -9.9200963973999023e-01 6.2714004516601562e-01</leafValues></_>
    <_>
      <internalNodes>
        0 -1 44613 1.6484709456562996e-02</internalNodes>
      <leafValues>
        -5.2598953247070312e-01 9.8848462104797363e-01</leafValues></_></weakClassifiers></stage2>
</opencv_storage>
